{'n1_layer1': {'w': [[-1.3965829610824585, 1.9450069665908813, 0.9417463541030884, -0.8000288605690002, 2.891674518585205, -0.7541340589523315, -0.8211909532546997, -1.769684910774231, -1.3163528442382812, -1.8357137441635132], [0.8751423358917236, 1.1306780576705933, 1.0802576541900635, 0.9194789528846741, -0.2370436042547226, -0.6140252351760864, -0.26894184947013855, 1.0467712879180908, 0.23520785570144653, -0.8824865221977234]], 'b': [[0.3836324214935303, -1.364756464958191, 0.6361889243125916, -0.4310213625431061, 0.04566202312707901, 0.1168389692902565, -1.4816595315933228, -0.7651183605194092, -1.9736248254776, 0.9111281633377075]]}, 'n1_layer2': {'w': [[-1.3353015184402466, -0.8382089734077454, -0.08894293755292892, -0.7721026539802551, -1.0808296203613281, -0.19286255538463593, -0.14356407523155212, 0.9580902457237244, -0.568463921546936, -0.6261370182037354], [0.40317830443382263, -0.07516290992498398, -0.01015190128237009, 1.2436693906784058, -0.029246509075164795, -0.25639963150024414, 1.7253166437149048, 0.7676423788070679, -1.6478873491287231, -0.6472055315971375], [0.07640492916107178, 0.6899541616439819, -0.9896346926689148, -2.7182774543762207, 0.19116489589214325, -0.7750153541564941, -0.40224531292915344, -0.05257013812661171, 0.11988525837659836, -0.4359705448150635], [-1.239075779914856, -0.6622892618179321, -0.20834623277187347, -0.9257258772850037, 0.011244810186326504, -0.7300838828086853, -1.0822443962097168, -0.5047017335891724, 0.753139078617096, 0.4348057508468628], [0.24035772681236267, 0.9535467624664307, -1.6733653545379639, 3.1621828079223633, 1.2711282968521118, 0.892013430595398, -0.062257055193185806, 0.5942686796188354, -2.1357927322387695, 0.6520189046859741], [0.7225728034973145, 1.1340839862823486, -1.515078067779541, 1.1327964067459106, 2.0527596473693848, -0.26621875166893005, -1.9919990301132202, -0.19571103155612946, -0.186782106757164, -0.08410853147506714], [0.44343316555023193, -0.31213274598121643, -0.6644830703735352, 2.3995909690856934, -1.54717218875885, 0.5589539408683777, 0.7829971313476562, -2.5554356575012207, 2.551396608352661, -0.4380086660385132], [0.8439863920211792, 0.7137885689735413, -0.6781312227249146, 1.4277745485305786, 0.6733189225196838, 0.5626965761184692, -0.009405123069882393, -0.5553087592124939, -0.5744916796684265, -0.9407306909561157], [0.37611493468284607, 0.9728843569755554, -1.202964425086975, -1.0173656940460205, 0.07388652116060257, 0.6037599444389343, 0.6026261448860168, 0.25673896074295044, 0.04499419778585434, -0.2927435636520386], [0.7358996272087097, 2.85605788230896, -1.6292670965194702, -1.3937270641326904, 1.8459422588348389, 2.0388267040252686, 2.4119040966033936, -0.5524559020996094, -0.5257963538169861, 0.7720168232917786]], 'b': [[-0.8327558040618896, -2.843052864074707, 1.4782986640930176, -0.8495427370071411, -0.3503924310207367, -2.086151599884033, 1.5702937841415405, 0.7097389698028564, -0.03392934799194336, -0.3906400501728058]]}, 'n1_layer3': {'w': [[-0.8925104737281799], [-0.3810773193836212], [0.7076807618141174], [0.3844868242740631], [-1.8931784629821777], [-0.45148077607154846], [-0.4352520704269409], [0.2560746669769287], [1.2977046966552734], [0.7868730425834656]], 'b': [[-0.15210594236850739]]}, 'n2_layer1': {'w': [[-1.1525871753692627, -2.129185199737549, -0.8589397668838501, -1.4404994249343872, 0.45597752928733826, 0.7164558172225952, 0.2470158487558365, -1.4812451601028442, 1.3763759136199951, -0.09403228759765625], [-0.4401609003543854, 2.9979312419891357, 1.4379470348358154, -0.9630820155143738, 0.302875280380249, -1.665471076965332, 1.044805884361267, -0.08419566601514816, 2.407879114151001, -1.8669501543045044]], 'b': [[1.3042752742767334, 0.4240257441997528, 0.6851372122764587, -0.5639943480491638, -0.25794339179992676, -0.2282785326242447, -0.49996140599250793, -1.2258696556091309, -2.453925371170044, 1.0149115324020386]]}, 'n2_layer2': {'w': [[-0.5521532893180847, -0.9274502396583557, -1.4355361461639404, -0.4612978398799896, 0.019732415676116943, 0.6312480568885803, 0.6061815619468689, 0.07611127197742462, 0.9950937032699585, -1.2422683238983154], [-0.01885889656841755, -2.4410512447357178, 0.08933950960636139, -0.7724112272262573, -1.1731640100479126, 2.9411818981170654, 0.7564711570739746, 1.332074761390686, -1.2771316766738892, -0.051435671746730804], [0.3432040214538574, -0.4555998146533966, -0.45624226331710815, -1.1140025854110718, 2.250077962875366, 1.3486725091934204, -1.7719740867614746, 0.05718902871012688, -0.4902457892894745, 0.3008438050746918], [0.7058190703392029, -0.4283371865749359, -0.5867873430252075, 0.3372843861579895, 0.29642927646636963, -1.198189377784729, 1.1987760066986084, 0.8659539222717285, 1.1393436193466187, -0.27659544348716736], [-0.944136381149292, 0.45236244797706604, 1.1934031248092651, 1.6106384992599487, 0.9749603867530823, -0.11207565665245056, -0.6117244362831116, 2.0402040481567383, -0.29883965849876404, 1.5356923341751099], [1.2845637798309326, -2.553969144821167, -0.5211937427520752, 0.9449396729469299, 0.4867585003376007, -1.5500727891921997, 0.5155543088912964, 1.6922146081924438, -0.42315858602523804, 1.3584941625595093], [1.5360413789749146, -0.6122032403945923, 1.0150845050811768, -0.6565178036689758, 0.3992520272731781, 0.3527134656906128, -1.1759190559387207, 0.8640033006668091, 1.0260416269302368, 1.0128625631332397], [0.740854799747467, 0.19297797977924347, 1.1284428834915161, 0.4455421566963196, -0.7193666696548462, 0.41109132766723633, -0.4553923010826111, 0.9026287794113159, 0.005331017076969147, -0.7199146151542664], [1.0289751291275024, -0.2523329257965088, 3.9431302547454834, 0.6899155378341675, -0.42013323307037354, 0.7724239230155945, 0.541656494140625, 0.5584126114845276, -0.8057603240013123, 1.0850446224212646], [-0.9387080073356628, -1.2767493724822998, -2.1852633953094482, 1.9488815069198608, -0.12825527787208557, -1.1663389205932617, 0.8379314541816711, -0.22545960545539856, 1.0232187509536743, -0.9847649335861206]], 'b': [[-0.7721948623657227, 2.1981852054595947, -0.45351430773735046, 1.1173853874206543, -1.1656298637390137, 0.6335635185241699, 0.22157447040081024, 0.6831809878349304, -0.14512962102890015, 0.35438430309295654]]}, 'n2_layer3': {'w': [[-1.1984559297561646], [0.8539283275604248], [2.708266019821167], [-1.5780879259109497], [0.9925772547721863], [2.1437206268310547], [0.304146945476532], [0.5535961389541626], [0.06456536054611206], [-0.27844008803367615]], 'b': [[0.5607292652130127]]}}